digraph Tree {
node [shape=box, style="filled", color="black"] ;
0 [label="petal length (cm) <= 2.45\ngini = 0.667\nsamples = 127\nvalue = [42, 42, 43]\nclass = virginica", fillcolor="#fefdff"] ;
1 [label="gini = 0.0\nsamples = 42\nvalue = [42, 0, 0]\nclass = setosa", fillcolor="#e58139"] ;
0 -> 1 [labeldistance=2.5, labelangle=45, headlabel="True"] ;
2 [label="petal width (cm) <= 1.75\ngini = 0.5\nsamples = 85\nvalue = [0, 42, 43]\nclass = virginica", fillcolor="#fcfafe"] ;
0 -> 2 [labeldistance=2.5, labelangle=-45, headlabel="False"] ;
3 [label="petal length (cm) <= 4.95\ngini = 0.127\nsamples = 44\nvalue = [0, 41, 3]\nclass = versicolor", fillcolor="#47e78a"] ;
2 -> 3 ;
4 [label="petal width (cm) <= 1.65\ngini = 0.049\nsamples = 40\nvalue = [0, 39, 1]\nclass = versicolor", fillcolor="#3ee684"] ;
3 -> 4 ;
5 [label="gini = 0.0\nsamples = 39\nvalue = [0, 39, 0]\nclass = versicolor", fillcolor="#39e581"] ;
4 -> 5 ;
6 [label="gini = 0.0\nsamples = 1\nvalue = [0, 0, 1]\nclass = virginica", fillcolor="#8139e5"] ;
4 -> 6 ;
7 [label="petal width (cm) <= 1.55\ngini = 0.5\nsamples = 4\nvalue = [0, 2, 2]\nclass = versicolor", fillcolor="#ffffff"] ;
3 -> 7 ;
8 [label="gini = 0.0\nsamples = 2\nvalue = [0, 0, 2]\nclass = virginica", fillcolor="#8139e5"] ;
7 -> 8 ;
9 [label="gini = 0.0\nsamples = 2\nvalue = [0, 2, 0]\nclass = versicolor", fillcolor="#39e581"] ;
7 -> 9 ;
10 [label="petal length (cm) <= 4.85\ngini = 0.048\nsamples = 41\nvalue = [0, 1, 40]\nclass = virginica", fillcolor="#843ee6"] ;
2 -> 10 ;
11 [label="sepal length (cm) <= 5.95\ngini = 0.444\nsamples = 3\nvalue = [0, 1, 2]\nclass = virginica", fillcolor="#c09cf2"] ;
10 -> 11 ;
12 [label="gini = 0.0\nsamples = 1\nvalue = [0, 1, 0]\nclass = versicolor", fillcolor="#39e581"] ;
11 -> 12 ;
13 [label="gini = 0.0\nsamples = 2\nvalue = [0, 0, 2]\nclass = virginica", fillcolor="#8139e5"] ;
11 -> 13 ;
14 [label="gini = 0.0\nsamples = 38\nvalue = [0, 0, 38]\nclass = virginica", fillcolor="#8139e5"] ;
10 -> 14 ;
}